<?xml version="1.0"?>
<opencv_storage>
<stage6>
  <maxWeakCount>10</maxWeakCount>
  <stageThreshold>-1.1351231336593628e+00</stageThreshold>
  <weakClassifiers>
    <_>
      <internalNodes>
        0 -1 5859062 5.6867115199565887e-04</internalNodes>
      <leafValues>
        -4.2230346798896790e-01 5.9924024343490601e-01</leafValues></_>
    <_>
      <internalNodes>
        0 -1 4442701 4.6345997601747513e-02</internalNodes>
      <leafValues>
        -2.5570282340049744e-01 6.8475902080535889e-01</leafValues></_>
    <_>
      <internalNodes>
        0 -1 6310208 -3.5426374524831772e-03</internalNodes>
      <leafValues>
        -8.8782864809036255e-01 2.1326173841953278e-01</leafValues></_>
    <_>
      <internalNodes>
        0 -1 6778248 1.4765765517950058e-03</internalNodes>
      <leafValues>
        2.1690797805786133e-01 -8.1691557168960571e-01</leafValues></_>
    <_>
      <internalNodes>
        0 -1 1244195 2.5134827941656113e-02</internalNodes>
      <leafValues>
        -2.6524347066879272e-01 7.6229757070541382e-01</leafValues></_>
    <_>
      <internalNodes>
        0 -1 35003 -3.0145913362503052e-01</internalNodes>
      <leafValues>
        7.0187777280807495e-01 -2.2782450914382935e-01</leafValues></_>
    <_>
      <internalNodes>
        0 -1 4135528 8.7323442101478577e-02</internalNodes>
      <leafValues>
        -2.5277519226074219e-01 6.3230234384536743e-01</leafValues></_>
    <_>
      <internalNodes>
        0 -1 3285932 3.6753356456756592e-02</internalNodes>
      <leafValues>
        -2.5275442004203796e-01 6.3064646720886230e-01</leafValues></_>
    <_>
      <internalNodes>
        0 -1 4199673 -1.8096961081027985e-02</internalNodes>
      <leafValues>
        5.6574869155883789e-01 -2.9190656542778015e-01</leafValues></_>
    <_>
      <internalNodes>
        0 -1 6260329 -4.6727852895855904e-03</internalNodes>
      <leafValues>
        4.0321770310401917e-01 -4.3187955021858215e-01</leafValues></_></weakClassifiers></stage6>
</opencv_storage>
